34 128
34 -0.077875 -0.189593 0.104322 0.004762 0.149376 -0.035057 0.108286 0.014583 -0.072847 -0.004401 -0.074636 0.136216 -0.034540 -0.149259 -0.117520 -0.128329 0.078041 -0.125991 0.008624 0.065318 0.165955 0.060346 0.107812 0.093547 -0.049549 -0.053534 -0.089556 0.094595 0.022527 0.177123 -0.016894 0.023716 -0.079735 0.115792 -0.118253 -0.176667 0.171269 0.125326 0.012673 -0.018156 -0.174402 -0.024042 0.149223 0.197854 -0.083176 0.075640 0.066873 -0.156612 -0.113562 0.069887 0.023350 0.112547 -0.023735 0.067634 -0.137168 -0.115981 -0.149738 0.085376 -0.062501 0.019690 0.039656 -0.140001 -0.079143 0.155561 0.025441 -0.105889 -0.024006 -0.052569 0.004646 -0.180355 -0.024204 0.082096 -0.011873 -0.017897 0.077870 -0.059334 0.139566 0.052009 -0.065948 -0.003168 -0.159565 -0.141134 0.010731 -0.106175 -0.124162 0.241377 0.022508 -0.029746 -0.063015 -0.032713 0.026907 0.049642 0.090364 0.010422 -0.130254 0.217973 -0.211733 0.060408 0.163472 -0.071766 -0.243813 0.088286 -0.139322 -0.085212 -0.023868 0.143801 0.257680 0.096700 -0.152430 -0.064503 0.061534 -0.142349 -0.009261 -0.023174 0.084460 -0.004888 -0.092923 0.203725 -0.089151 0.032578 -0.086452 -0.193577 -0.031753 -0.202441 -0.090480 0.070911 -0.021435 0.076431
1 -0.086143 -0.299775 0.058331 -0.074150 0.097760 -0.084982 0.101555 0.135633 0.070511 -0.003702 -0.080744 0.177688 -0.026354 -0.152055 0.003410 -0.207203 0.024953 -0.246444 0.035245 -0.044283 0.212368 0.042346 0.092062 0.109603 0.051248 -0.073588 -0.083326 0.089099 0.037024 0.143562 -0.008844 -0.011615 -0.100496 0.036846 -0.075106 -0.240082 0.164739 0.156820 -0.013047 -0.060670 -0.167714 -0.088823 0.202029 0.264977 -0.187509 0.113433 0.128356 -0.098152 -0.012808 0.139228 -0.088407 0.126847 -0.038561 0.158460 -0.161377 -0.192322 -0.114715 0.112998 -0.037582 -0.045676 0.104046 -0.152228 0.012964 0.152227 -0.070671 0.028740 -0.053805 0.037730 -0.009784 -0.283450 -0.110317 0.066845 -0.016830 -0.087037 0.207558 -0.052260 0.164955 -0.002763 -0.091420 -0.161634 -0.197266 -0.056938 -0.002549 -0.032744 -0.208962 0.041649 0.189203 -0.055905 0.025860 0.008898 0.104176 -0.046115 0.105514 0.021877 -0.221575 0.105919 -0.099812 -0.161594 0.189641 0.057614 -0.171296 0.073957 -0.137477 -0.086001 -0.078173 0.100323 0.216012 0.086972 -0.143671 -0.131210 0.033864 -0.005370 -0.000882 0.043255 -0.043661 0.014057 -0.065306 0.227466 -0.115483 -0.075152 -0.065435 -0.094316 0.072158 -0.286635 -0.249464 -0.006801 0.062224 0.161846
33 -0.066866 -0.154156 0.106626 0.016383 0.154133 -0.027160 0.093908 -0.006744 -0.102340 -0.006212 -0.065583 0.122227 -0.032699 -0.149510 -0.133489 -0.106799 0.078798 -0.083724 0.001815 0.085715 0.153350 0.066938 0.103554 0.087276 -0.080594 -0.033842 -0.089435 0.100742 0.028293 0.176363 -0.027399 0.032572 -0.078497 0.143538 -0.130497 -0.166659 0.160365 0.105254 0.018658 -0.004458 -0.164964 -0.018348 0.130073 0.178414 -0.052555 0.071260 0.039839 -0.168582 -0.141524 0.045111 0.037861 0.100387 -0.016680 0.047398 -0.139701 -0.090837 -0.154943 0.082677 -0.067902 0.037072 0.029046 -0.141652 -0.102845 0.150086 0.049392 -0.130221 -0.008656 -0.071340 0.005377 -0.146807 -0.004897 0.081872 0.005518 -0.007150 0.042286 -0.053639 0.141621 0.055038 -0.052183 0.025561 -0.138391 -0.167584 0.004518 -0.127241 -0.104930 0.283240 -0.012701 -0.030889 -0.075897 -0.045430 0.018458 0.070909 0.083155 -0.004470 -0.113696 0.235969 -0.240990 0.095579 0.157532 -0.093659 -0.259777 0.075482 -0.133132 -0.077462 -0.002101 0.142433 0.259559 0.100480 -0.153071 -0.054923 0.057076 -0.172377 -0.004206 -0.045151 0.107723 -0.008467 -0.099006 0.190413 -0.089724 0.044927 -0.088359 -0.210427 -0.057284 -0.178907 -0.042764 0.081309 -0.045126 0.050207
3 -0.072961 -0.212159 0.075976 -0.033494 0.113507 -0.052021 0.091047 0.062597 -0.015856 -0.006208 -0.068791 0.137072 -0.031730 -0.143239 -0.058030 -0.153571 0.049357 -0.160097 0.019331 0.013634 0.165502 0.054524 0.085733 0.095513 -0.008058 -0.050428 -0.078529 0.093581 0.034693 0.150181 -0.018256 0.003248 -0.090450 0.085176 -0.093404 -0.195224 0.154278 0.127613 0.005792 -0.028824 -0.150461 -0.059988 0.157328 0.216905 -0.117130 0.085151 0.083078 -0.124498 -0.074283 0.090027 -0.025131 0.100448 -0.029876 0.103123 -0.143479 -0.140009 -0.126080 0.094440 -0.051463 -0.005260 0.056494 -0.133309 -0.037293 0.142078 -0.013792 -0.041670 -0.027968 -0.008879 -0.001496 -0.211014 -0.058591 0.071463 -0.006016 -0.047337 0.124364 -0.053025 0.147285 0.021338 -0.065893 -0.071329 -0.159383 -0.101386 -0.003836 -0.073408 -0.148836 0.145930 0.092242 -0.040146 -0.021720 -0.017120 0.058744 0.006045 0.084848 0.006816 -0.166830 0.152377 -0.159629 -0.036824 0.162894 -0.009519 -0.199141 0.068519 -0.128686 -0.080983 -0.038544 0.114736 0.219699 0.086397 -0.140064 -0.094168 0.042638 -0.077693 -0.000267 0.003876 0.023697 0.004036 -0.078703 0.200959 -0.092416 -0.016784 -0.074821 -0.141601 0.008080 -0.222672 -0.145858 0.033698 0.015946 0.106683
2 -0.067059 -0.246507 0.054762 -0.060627 0.098074 -0.069718 0.087804 0.097634 0.016882 -0.006777 -0.075745 0.154941 -0.020828 -0.146291 -0.023542 -0.184714 0.027504 -0.187129 0.031096 -0.010990 0.190193 0.056597 0.090125 0.097604 0.005953 -0.052219 -0.078309 0.091670 0.039963 0.145037 -0.012411 -0.008148 -0.105257 0.070405 -0.085649 -0.212014 0.158666 0.131657 -0.001949 -0.043794 -0.148999 -0.074942 0.171934 0.238513 -0.145465 0.102110 0.093249 -0.111002 -0.045192 0.101109 -0.062497 0.100150 -0.026589 0.139392 -0.163444 -0.167480 -0.109532 0.105827 -0.047989 -0.025068 0.074941 -0.133489 -0.016267 0.134663 -0.043119 0.001618 -0.041345 0.010734 -0.008163 -0.233625 -0.091968 0.067841 0.004654 -0.072973 0.155266 -0.047295 0.151223 0.006456 -0.071728 -0.114327 -0.171295 -0.091945 -0.013701 -0.057893 -0.169381 0.097904 0.141321 -0.053601 0.006498 -0.011128 0.083774 -0.020706 0.090605 -0.005160 -0.200614 0.117986 -0.130787 -0.106686 0.161155 0.031172 -0.176181 0.054080 -0.120021 -0.083893 -0.053668 0.091303 0.213782 0.088666 -0.146147 -0.111353 0.024810 -0.039723 0.009916 0.020625 -0.022856 0.006256 -0.067526 0.210125 -0.107134 -0.050345 -0.068750 -0.113871 0.038445 -0.251400 -0.180933 0.019174 0.040394 0.127976
32 -0.073664 -0.161901 0.106741 0.013622 0.156969 -0.022050 0.104782 -0.015089 -0.111187 -0.006485 -0.069121 0.116020 -0.036260 -0.142553 -0.142514 -0.104898 0.089664 -0.093872 0.000465 0.088408 0.151116 0.071105 0.097907 0.092991 -0.082388 -0.041770 -0.095585 0.103370 0.024201 0.176521 -0.026987 0.026583 -0.066774 0.136716 -0.134873 -0.165266 0.164179 0.112884 0.021190 -0.014180 -0.167914 -0.017785 0.121614 0.175475 -0.054504 0.069732 0.041033 -0.158534 -0.139819 0.042013 0.046617 0.103351 -0.023883 0.046251 -0.134742 -0.093041 -0.151872 0.078044 -0.072366 0.040742 0.020461 -0.133577 -0.098272 0.155744 0.040939 -0.134204 -0.015834 -0.064167 0.002610 -0.156268 -0.011295 0.089846 -0.002832 -0.010092 0.037829 -0.060760 0.135699 0.056353 -0.057943 0.027743 -0.149629 -0.165935 0.014268 -0.121804 -0.106209 0.289549 -0.014162 -0.026099 -0.078142 -0.051104 0.015170 0.070951 0.089814 -0.001876 -0.109088 0.239511 -0.240926 0.107641 0.156230 -0.104970 -0.259434 0.083428 -0.139372 -0.083891 0.005038 0.160600 0.271376 0.096985 -0.157171 -0.046988 0.061990 -0.180346 -0.004493 -0.038285 0.111278 -0.009464 -0.098164 0.192655 -0.074550 0.046499 -0.092156 -0.218193 -0.063009 -0.180987 -0.041071 0.083436 -0.048568 0.055172
4 -0.068702 -0.218184 0.063501 -0.042449 0.104896 -0.059949 0.082170 0.078715 0.008788 -0.007719 -0.066273 0.142036 -0.023353 -0.135447 -0.039439 -0.160898 0.039605 -0.176113 0.025536 0.004532 0.176388 0.048449 0.080573 0.092466 0.004457 -0.051564 -0.081350 0.089999 0.033652 0.140104 -0.017071 -0.002542 -0.089001 0.067834 -0.090218 -0.203268 0.157140 0.133872 0.001807 -0.036262 -0.152821 -0.067501 0.165009 0.226786 -0.124817 0.092694 0.088888 -0.117854 -0.060003 0.094621 -0.039848 0.102881 -0.027813 0.117865 -0.149374 -0.147294 -0.116532 0.095134 -0.043618 -0.018597 0.073656 -0.138922 -0.021773 0.140323 -0.025468 -0.020668 -0.040559 0.002402 -0.004207 -0.224591 -0.074146 0.072103 -0.004242 -0.062833 0.141705 -0.054727 0.150065 0.019474 -0.077056 -0.087758 -0.165096 -0.098615 -0.002928 -0.061758 -0.160900 0.120351 0.119277 -0.048538 -0.008177 -0.010665 0.065629 -0.009722 0.088318 0.005590 -0.178228 0.143418 -0.145908 -0.068757 0.164030 0.003325 -0.192244 0.069235 -0.122949 -0.074585 -0.050371 0.109119 0.214134 0.086682 -0.142577 -0.100857 0.040867 -0.062738 0.000592 0.012187 0.004699 0.008326 -0.071839 0.203203 -0.098502 -0.029957 -0.067815 -0.125338 0.018238 -0.239746 -0.168521 0.027295 0.026847 0.118309
24 -0.070983 -0.167443 0.111734 0.014799 0.154668 -0.026122 0.103005 -0.004695 -0.098768 -0.004361 -0.068207 0.123296 -0.032907 -0.150386 -0.137691 -0.117995 0.083972 -0.104101 0.006828 0.082234 0.158716 0.067887 0.106568 0.098513 -0.071370 -0.040344 -0.094660 0.097870 0.022888 0.183312 -0.027596 0.026441 -0.080320 0.131450 -0.131632 -0.174352 0.172017 0.114915 0.018998 -0.017174 -0.172018 -0.017498 0.135320 0.191042 -0.062715 0.077381 0.046330 -0.161217 -0.134631 0.050990 0.043123 0.108629 -0.026853 0.057711 -0.134955 -0.097438 -0.152373 0.084395 -0.071977 0.035024 0.026311 -0.140795 -0.091436 0.157661 0.037422 -0.130012 -0.018424 -0.060435 -0.000218 -0.161529 -0.010659 0.088959 -0.006407 -0.011177 0.051544 -0.062928 0.136722 0.053265 -0.060786 0.024233 -0.149497 -0.159701 0.010306 -0.118130 -0.115108 0.275673 -0.006770 -0.025077 -0.073951 -0.044255 0.016998 0.065244 0.090574 0.000256 -0.117001 0.241256 -0.234459 0.095915 0.162463 -0.096277 -0.263370 0.090928 -0.136311 -0.082775 -0.006566 0.157466 0.270975 0.102775 -0.157173 -0.053939 0.065951 -0.172863 -0.007086 -0.037428 0.099900 -0.011292 -0.100722 0.196914 -0.083511 0.046750 -0.090929 -0.215569 -0.053935 -0.194600 -0.054023 0.085537 -0.037641 0.063577
14 -0.069721 -0.215138 0.072985 -0.036751 0.111276 -0.051990 0.085147 0.062279 -0.009693 -0.002978 -0.073361 0.143727 -0.027839 -0.138782 -0.052605 -0.151873 0.044903 -0.159255 0.021309 0.012115 0.175132 0.054858 0.089315 0.094750 -0.010709 -0.047171 -0.074705 0.090736 0.026528 0.148805 -0.013799 0.006828 -0.089299 0.082354 -0.090509 -0.193926 0.153026 0.124709 0.000511 -0.034038 -0.157045 -0.054620 0.158993 0.216771 -0.115312 0.092197 0.083484 -0.118643 -0.066758 0.091758 -0.033729 0.103321 -0.027037 0.107057 -0.143810 -0.140015 -0.125661 0.096452 -0.051633 -0.011518 0.064446 -0.139119 -0.033974 0.136065 -0.020035 -0.035662 -0.031182 -0.012775 -0.002792 -0.208988 -0.065243 0.072518 -0.006837 -0.046146 0.129160 -0.047899 0.145330 0.022229 -0.069507 -0.076127 -0.161527 -0.101831 0.000955 -0.068065 -0.154934 0.144555 0.093171 -0.045544 -0.017564 -0.017211 0.060051 0.002419 0.089831 0.004049 -0.168050 0.156456 -0.155548 -0.040754 0.163048 -0.006935 -0.199654 0.068243 -0.126574 -0.075610 -0.045493 0.110783 0.223026 0.091249 -0.144079 -0.093155 0.036467 -0.078567 -0.002918 0.004375 0.022310 0.001319 -0.078664 0.198874 -0.099252 -0.018030 -0.071709 -0.139081 0.011808 -0.227576 -0.143512 0.031709 0.011577 0.106428
28 -0.075642 -0.197612 0.095497 -0.009318 0.133802 -0.034518 0.101023 0.027205 -0.056128 -0.005455 -0.070427 0.137441 -0.033405 -0.141776 -0.099966 -0.133742 0.066213 -0.137398 0.012318 0.051553 0.163643 0.057777 0.100246 0.095780 -0.040620 -0.048670 -0.092247 0.093381 0.026921 0.166817 -0.017848 0.019668 -0.078165 0.106737 -0.114457 -0.187641 0.166460 0.125579 0.010255 -0.023788 -0.168284 -0.038764 0.150482 0.204831 -0.095499 0.082231 0.065602 -0.143308 -0.104720 0.071627 0.003574 0.110213 -0.023417 0.073262 -0.134567 -0.121175 -0.144156 0.084511 -0.064479 0.014726 0.045047 -0.141835 -0.059075 0.154280 0.013036 -0.086067 -0.026036 -0.034459 -0.003316 -0.194880 -0.036978 0.083115 -0.011716 -0.032273 0.091255 -0.056381 0.140146 0.043593 -0.071208 -0.023033 -0.160225 -0.131999 0.008246 -0.092705 -0.135682 0.216663 0.043212 -0.031054 -0.049344 -0.029299 0.041229 0.035273 0.090100 0.006278 -0.137740 0.197158 -0.198180 0.031468 0.167317 -0.056502 -0.235539 0.086232 -0.142682 -0.085545 -0.023726 0.139990 0.256043 0.100130 -0.149705 -0.078067 0.055032 -0.124737 -0.009598 -0.018981 0.067223 -0.005935 -0.093780 0.202184 -0.092341 0.011652 -0.083964 -0.182141 -0.019745 -0.212490 -0.108810 0.055894 -0.011516 0.088149
30 -0.065942 -0.162616 0.101596 0.015486 0.143051 -0.021462 0.101657 -0.008877 -0.097564 -0.003955 -0.072010 0.116866 -0.035915 -0.141689 -0.134556 -0.110209 0.083018 -0.095907 0.000040 0.084019 0.149430 0.061546 0.104926 0.086330 -0.068924 -0.043024 -0.086611 0.096151 0.017836 0.175385 -0.023764 0.023229 -0.073039 0.127384 -0.131160 -0.164992 0.163790 0.116028 0.019670 -0.016978 -0.167793 -0.019550 0.132184 0.186316 -0.058735 0.073420 0.047788 -0.163231 -0.133764 0.053584 0.038328 0.106401 -0.020778 0.045972 -0.129781 -0.095480 -0.156379 0.082750 -0.067241 0.036075 0.026516 -0.140148 -0.086807 0.153268 0.044147 -0.127254 -0.017294 -0.063773 0.002693 -0.162368 -0.009054 0.085350 -0.003547 -0.010667 0.051014 -0.063377 0.137576 0.058324 -0.059563 0.023551 -0.152967 -0.160512 0.005314 -0.118283 -0.110303 0.277341 -0.009149 -0.026238 -0.077456 -0.043766 0.020942 0.059990 0.088866 0.005963 -0.112766 0.234599 -0.236314 0.097517 0.162302 -0.095089 -0.253150 0.086275 -0.140379 -0.087626 -0.006619 0.151205 0.268620 0.102341 -0.159336 -0.055699 0.058055 -0.172930 -0.010064 -0.040797 0.107550 -0.011601 -0.101886 0.195228 -0.086423 0.047763 -0.094068 -0.208006 -0.054056 -0.187354 -0.053730 0.084551 -0.034492 0.060289
6 -0.084034 -0.315177 0.045333 -0.074354 0.082728 -0.080225 0.109585 0.150674 0.100576 -0.001355 -0.075283 0.182403 -0.033558 -0.141554 0.032260 -0.207299 0.014686 -0.275112 0.030555 -0.067495 0.210344 0.030055 0.085912 0.104146 0.082106 -0.091569 -0.081398 0.067299 0.028166 0.135489 0.005236 -0.023661 -0.085918 0.002242 -0.055700 -0.227995 0.159161 0.166614 -0.031192 -0.070382 -0.160429 -0.081974 0.205446 0.251961 -0.207762 0.118126 0.150354 -0.078047 0.018254 0.151511 -0.098190 0.130465 -0.044462 0.158182 -0.138419 -0.199912 -0.098413 0.098351 -0.017955 -0.062993 0.113941 -0.134620 0.043659 0.144510 -0.088340 0.050095 -0.063930 0.055797 -0.009887 -0.299605 -0.115483 0.063581 -0.038535 -0.086080 0.232864 -0.046266 0.148785 -0.003448 -0.101710 -0.179755 -0.198992 -0.010182 0.005085 0.003285 -0.207404 -0.014791 0.214480 -0.050982 0.037765 0.020987 0.114453 -0.062738 0.106905 0.038577 -0.213284 0.078662 -0.056032 -0.196821 0.183683 0.073780 -0.132365 0.071525 -0.138241 -0.080809 -0.097836 0.087237 0.190245 0.079164 -0.122641 -0.136598 0.037197 0.033687 -0.008318 0.056701 -0.060176 0.026075 -0.054798 0.211177 -0.103177 -0.089159 -0.054932 -0.071746 0.104261 -0.290470 -0.280070 -0.023267 0.083756 0.171021
9 -0.069291 -0.199216 0.075273 -0.023113 0.119695 -0.045847 0.089540 0.046958 -0.027197 -0.005441 -0.068197 0.139697 -0.027847 -0.141832 -0.073426 -0.141868 0.049776 -0.139076 0.014155 0.032863 0.163069 0.057170 0.096029 0.088086 -0.026681 -0.044205 -0.081807 0.085949 0.026645 0.154447 -0.016213 0.014439 -0.086280 0.087967 -0.095487 -0.186035 0.157558 0.120444 0.001926 -0.025525 -0.158338 -0.049203 0.151032 0.207555 -0.103180 0.084272 0.074207 -0.131055 -0.083103 0.075081 -0.018031 0.102985 -0.026580 0.090827 -0.135415 -0.128383 -0.128766 0.087823 -0.053557 -0.002412 0.055698 -0.134779 -0.050932 0.141492 -0.000933 -0.057366 -0.026998 -0.022455 -0.001885 -0.189279 -0.046857 0.073725 0.000027 -0.041094 0.109394 -0.051866 0.135622 0.033290 -0.067385 -0.046344 -0.149113 -0.112248 -0.002739 -0.083516 -0.139283 0.166003 0.069269 -0.039247 -0.033517 -0.020535 0.050680 0.015114 0.089310 0.008366 -0.149341 0.160439 -0.163682 -0.011745 0.154271 -0.024739 -0.206353 0.065931 -0.126666 -0.075182 -0.032750 0.113637 0.219440 0.090431 -0.142571 -0.084083 0.045730 -0.093361 0.000261 -0.008265 0.038349 -0.001723 -0.082746 0.195406 -0.093989 -0.001400 -0.075401 -0.150675 -0.004372 -0.208321 -0.122133 0.045880 0.001442 0.093309
7 -0.086297 -0.323466 0.043046 -0.079019 0.083261 -0.081389 0.111063 0.153314 0.111310 -0.002477 -0.078895 0.190010 -0.033434 -0.146078 0.034736 -0.209848 0.016614 -0.279759 0.025695 -0.067690 0.217046 0.029318 0.090674 0.111359 0.086250 -0.095968 -0.087491 0.067411 0.024531 0.132827 0.009652 -0.016067 -0.090012 -0.002732 -0.059217 -0.232832 0.160370 0.165763 -0.031274 -0.068891 -0.167260 -0.083014 0.209790 0.260940 -0.210904 0.121976 0.155096 -0.075906 0.019725 0.153971 -0.103182 0.136476 -0.042764 0.163116 -0.144663 -0.199717 -0.100281 0.099083 -0.017928 -0.057999 0.116180 -0.141565 0.045606 0.151521 -0.092927 0.055936 -0.061661 0.059573 -0.005635 -0.306045 -0.119659 0.067294 -0.042805 -0.088319 0.240495 -0.044679 0.148043 -0.003544 -0.104319 -0.188436 -0.199793 -0.004969 0.003864 0.006419 -0.218175 -0.017982 0.214030 -0.049767 0.037469 0.025332 0.117965 -0.066587 0.112328 0.040349 -0.215758 0.081054 -0.052559 -0.200651 0.183401 0.078570 -0.138843 0.078306 -0.147266 -0.081773 -0.100470 0.083258 0.190298 0.076964 -0.121879 -0.138823 0.038706 0.038272 -0.011318 0.053047 -0.063543 0.022369 -0.058736 0.214983 -0.108427 -0.087156 -0.057548 -0.068099 0.109005 -0.290321 -0.287956 -0.029243 0.083710 0.181226
8 -0.068036 -0.214682 0.072465 -0.033999 0.110029 -0.050830 0.090421 0.061181 -0.015155 -0.003131 -0.071902 0.138130 -0.029709 -0.140217 -0.055359 -0.155533 0.049813 -0.158653 0.024105 0.020176 0.171958 0.054909 0.087339 0.092021 -0.013185 -0.046135 -0.082156 0.093895 0.029367 0.153111 -0.018440 0.004518 -0.086294 0.084735 -0.098369 -0.197314 0.159488 0.124990 0.007080 -0.029813 -0.155059 -0.057478 0.151778 0.218825 -0.113322 0.094700 0.076496 -0.123259 -0.074727 0.088548 -0.029104 0.101736 -0.023245 0.106415 -0.149600 -0.138927 -0.127857 0.092781 -0.054286 -0.008056 0.058588 -0.140516 -0.036798 0.144749 -0.013179 -0.045327 -0.029317 -0.012865 -0.002717 -0.213050 -0.066235 0.072742 -0.006197 -0.051209 0.121728 -0.052559 0.142468 0.022094 -0.070619 -0.070294 -0.161066 -0.111194 -0.003753 -0.072215 -0.155803 0.154928 0.094603 -0.042408 -0.021138 -0.021672 0.062814 0.001861 0.089215 0.003703 -0.166818 0.153841 -0.162143 -0.040885 0.160273 -0.016281 -0.199403 0.065811 -0.130932 -0.080120 -0.034346 0.111737 0.227683 0.084127 -0.145362 -0.093387 0.036878 -0.080760 0.002198 0.001913 0.018082 0.004102 -0.079341 0.198290 -0.095851 -0.018675 -0.076283 -0.145879 0.009993 -0.226288 -0.139483 0.033098 0.014359 0.102627
26 -0.069566 -0.171267 0.102422 0.004479 0.148201 -0.027041 0.106515 -0.002783 -0.091759 -0.008990 -0.071144 0.116427 -0.033013 -0.142711 -0.128654 -0.111689 0.084073 -0.112123 0.002868 0.076236 0.159203 0.064104 0.104041 0.097821 -0.064923 -0.050609 -0.098481 0.091749 0.018138 0.178110 -0.018770 0.022015 -0.069277 0.115595 -0.132200 -0.176858 0.166620 0.117996 0.013826 -0.020738 -0.168204 -0.028093 0.127625 0.183550 -0.069025 0.081228 0.049459 -0.152563 -0.126331 0.059144 0.037507 0.110120 -0.027325 0.050001 -0.130838 -0.103088 -0.146768 0.081426 -0.069944 0.033907 0.030037 -0.137072 -0.078599 0.159628 0.031668 -0.117101 -0.017376 -0.057202 0.001636 -0.170684 -0.018110 0.088342 -0.012400 -0.016570 0.061603 -0.066297 0.130952 0.052544 -0.066042 0.007177 -0.159741 -0.146525 0.013411 -0.108018 -0.115571 0.262425 0.001625 -0.027073 -0.071198 -0.042642 0.025493 0.056017 0.095742 0.011241 -0.116917 0.226865 -0.225989 0.084196 0.168188 -0.089093 -0.250985 0.088403 -0.141723 -0.081580 -0.006493 0.155750 0.269542 0.100247 -0.149847 -0.053901 0.057961 -0.161759 -0.007308 -0.030198 0.096497 -0.009023 -0.094024 0.193674 -0.076689 0.032923 -0.089734 -0.206369 -0.048922 -0.200825 -0.069048 0.081314 -0.034741 0.063758
25 -0.073080 -0.162942 0.100589 0.007221 0.141681 -0.025027 0.096140 -0.008181 -0.089813 -0.007009 -0.069956 0.112295 -0.032784 -0.135630 -0.130434 -0.114550 0.084061 -0.103324 0.009543 0.081790 0.155196 0.063269 0.102460 0.094842 -0.067601 -0.046174 -0.089530 0.093815 0.017417 0.175044 -0.021331 0.024870 -0.071878 0.121404 -0.132594 -0.166919 0.158641 0.116787 0.015236 -0.018007 -0.169969 -0.018478 0.126097 0.176900 -0.057185 0.078189 0.047808 -0.150672 -0.124904 0.051471 0.032434 0.106395 -0.020509 0.056524 -0.137954 -0.099891 -0.143502 0.073911 -0.068372 0.038186 0.024055 -0.129274 -0.083486 0.147510 0.031572 -0.124065 -0.017470 -0.055446 -0.003993 -0.161360 -0.015908 0.082709 -0.002427 -0.009849 0.049090 -0.066943 0.131376 0.056415 -0.058450 0.013561 -0.150031 -0.159542 0.010956 -0.118683 -0.113339 0.267089 -0.000954 -0.032492 -0.077133 -0.048243 0.017325 0.060459 0.092897 -0.003233 -0.121246 0.233700 -0.230290 0.086791 0.162723 -0.089159 -0.259715 0.088103 -0.141526 -0.082008 -0.003818 0.150773 0.269146 0.102843 -0.151357 -0.058283 0.057759 -0.165286 -0.004224 -0.036499 0.091550 -0.010130 -0.091667 0.195392 -0.083993 0.038314 -0.087689 -0.203375 -0.052531 -0.196554 -0.063982 0.086171 -0.039521 0.062668
11 -0.084986 -0.292214 0.052366 -0.064501 0.093006 -0.075844 0.099749 0.129857 0.077774 -0.005731 -0.075485 0.176762 -0.033721 -0.138022 0.011729 -0.196964 0.021899 -0.245149 0.026473 -0.046140 0.205908 0.035846 0.091341 0.104681 0.055627 -0.082054 -0.084083 0.075130 0.025486 0.133727 0.002228 -0.013098 -0.085217 0.020354 -0.065578 -0.217335 0.161980 0.157946 -0.020255 -0.054068 -0.158077 -0.072815 0.196107 0.244781 -0.183919 0.113033 0.135501 -0.085936 -0.007877 0.134960 -0.079590 0.125109 -0.037335 0.144015 -0.142642 -0.185404 -0.105547 0.101250 -0.031718 -0.045299 0.099269 -0.141807 0.025318 0.148318 -0.073329 0.029789 -0.057748 0.036331 -0.003394 -0.278014 -0.102278 0.065530 -0.031131 -0.079807 0.208262 -0.045155 0.147794 -0.000733 -0.096280 -0.154769 -0.186478 -0.032117 0.002192 -0.018739 -0.200799 0.028352 0.185043 -0.048339 0.025114 0.011842 0.097346 -0.048783 0.104738 0.032704 -0.199368 0.097162 -0.081463 -0.153849 0.176703 0.056749 -0.150384 0.077066 -0.139132 -0.079496 -0.083774 0.091748 0.202085 0.076722 -0.128869 -0.127226 0.036858 0.006066 -0.010062 0.037871 -0.038669 0.015829 -0.064511 0.213128 -0.104082 -0.071569 -0.058910 -0.091370 0.082200 -0.274647 -0.245264 -0.013714 0.058817 0.157289
5 -0.080013 -0.277048 0.055714 -0.055817 0.100195 -0.068883 0.105624 0.106836 0.056726 -0.004821 -0.071342 0.171549 -0.034855 -0.139949 -0.007761 -0.187319 0.028324 -0.228920 0.021827 -0.026007 0.198162 0.043069 0.087399 0.105891 0.043049 -0.076546 -0.082368 0.075386 0.026504 0.139874 -0.006184 -0.007998 -0.088068 0.038973 -0.071755 -0.215959 0.158377 0.150618 -0.015304 -0.050815 -0.156047 -0.069297 0.182306 0.235786 -0.168886 0.104869 0.120718 -0.097641 -0.022757 0.122041 -0.067816 0.123227 -0.030675 0.127849 -0.137748 -0.173747 -0.111186 0.094907 -0.030913 -0.040500 0.089073 -0.142073 0.010669 0.146732 -0.057873 0.009900 -0.044817 0.023690 -0.003802 -0.263660 -0.092215 0.067284 -0.026612 -0.073709 0.186278 -0.051403 0.145173 0.005056 -0.091890 -0.135471 -0.184610 -0.051722 0.001094 -0.030783 -0.189057 0.056811 0.159908 -0.042143 0.012995 0.004743 0.091349 -0.033208 0.101416 0.026964 -0.194031 0.115998 -0.104887 -0.125300 0.178772 0.040011 -0.168203 0.074423 -0.138881 -0.085244 -0.076309 0.096075 0.208563 0.082040 -0.135300 -0.118409 0.035429 -0.018003 -0.006017 0.027048 -0.022871 0.017931 -0.063132 0.209352 -0.098237 -0.054718 -0.064168 -0.101543 0.063052 -0.263228 -0.223933 0.002597 0.047816 0.148517
29 -0.074818 -0.200439 0.084869 -0.015514 0.133059 -0.043088 0.098852 0.034960 -0.040380 -0.003695 -0.068570 0.140861 -0.035484 -0.145040 -0.087151 -0.138447 0.059817 -0.146459 0.012854 0.040280 0.169092 0.054852 0.092620 0.094135 -0.032928 -0.053308 -0.087578 0.088703 0.028838 0.163181 -0.014490 0.013291 -0.075666 0.095677 -0.109647 -0.183339 0.162854 0.124649 0.008526 -0.028120 -0.158424 -0.037800 0.145073 0.198360 -0.095621 0.086120 0.070940 -0.136364 -0.094923 0.076706 -0.001217 0.106830 -0.028813 0.080937 -0.140008 -0.118634 -0.133716 0.090620 -0.054081 0.009746 0.050921 -0.142380 -0.058505 0.150279 0.003344 -0.077288 -0.029555 -0.032242 0.003621 -0.191926 -0.043740 0.078539 -0.012604 -0.031080 0.100252 -0.051443 0.144613 0.036965 -0.067761 -0.036740 -0.162897 -0.117483 0.008908 -0.089909 -0.138208 0.195885 0.057425 -0.037857 -0.041975 -0.029192 0.046080 0.024989 0.090139 0.012392 -0.140373 0.191429 -0.187794 0.017036 0.164184 -0.047576 -0.224685 0.081924 -0.136447 -0.079917 -0.027518 0.130810 0.237547 0.088325 -0.145939 -0.075517 0.055177 -0.112426 -0.008938 -0.014716 0.053887 -0.004864 -0.088453 0.195781 -0.085931 0.006568 -0.081111 -0.169898 -0.015212 -0.213975 -0.111319 0.052395 -0.008069 0.086859
31 -0.066130 -0.181283 0.095282 -0.006063 0.133284 -0.041101 0.093250 0.018527 -0.068246 -0.004368 -0.065426 0.131654 -0.025927 -0.145135 -0.100462 -0.130979 0.060453 -0.117574 0.013671 0.053490 0.161706 0.059005 0.093734 0.094800 -0.048064 -0.039751 -0.081360 0.098594 0.028108 0.162413 -0.024995 0.021545 -0.086374 0.116005 -0.112510 -0.175323 0.157206 0.113924 0.016564 -0.025185 -0.159655 -0.033339 0.140494 0.193363 -0.080652 0.080768 0.055777 -0.148928 -0.109141 0.067120 0.005952 0.104081 -0.023064 0.072098 -0.139685 -0.115423 -0.137545 0.085106 -0.064626 0.013610 0.045267 -0.136602 -0.075252 0.140760 0.015560 -0.090121 -0.025147 -0.044199 -0.002419 -0.173133 -0.031177 0.074339 0.001138 -0.027004 0.079888 -0.055138 0.145167 0.039169 -0.056480 -0.014704 -0.148651 -0.140274 0.000854 -0.103129 -0.123419 0.220851 0.030943 -0.038717 -0.051186 -0.037247 0.030896 0.044245 0.089448 -0.001397 -0.141434 0.199218 -0.204226 0.035974 0.157943 -0.054715 -0.234727 0.073828 -0.128023 -0.083124 -0.020187 0.131443 0.245767 0.097475 -0.146042 -0.068506 0.046572 -0.134948 -0.004712 -0.024101 0.069266 -0.000963 -0.090994 0.199510 -0.095008 0.018926 -0.084351 -0.180462 -0.030807 -0.204313 -0.088544 0.065484 -0.021639 0.075386
20 -0.067778 -0.218766 0.063994 -0.038688 0.101322 -0.059269 0.089966 0.071130 -0.003714 -0.006477 -0.071332 0.138222 -0.020420 -0.135821 -0.046338 -0.156959 0.035018 -0.162555 0.021121 0.006571 0.174854 0.047948 0.090134 0.091859 -0.002725 -0.046784 -0.074117 0.083145 0.031367 0.139932 -0.016836 -0.000125 -0.089750 0.074217 -0.090532 -0.199353 0.162985 0.127748 -0.002166 -0.040366 -0.158742 -0.062727 0.158193 0.223239 -0.121243 0.096499 0.089230 -0.118748 -0.062397 0.089135 -0.041011 0.104993 -0.024037 0.106991 -0.147717 -0.146133 -0.120642 0.090866 -0.052096 -0.011691 0.071926 -0.135636 -0.027085 0.143619 -0.021814 -0.030243 -0.036556 -0.002204 -0.004912 -0.210891 -0.071011 0.072388 -0.005829 -0.057200 0.134122 -0.048586 0.145208 0.019794 -0.070033 -0.077130 -0.162651 -0.101646 -0.002928 -0.071746 -0.154781 0.134752 0.102909 -0.044275 -0.017200 -0.012573 0.068536 -0.003898 0.090124 0.004424 -0.170334 0.143483 -0.145179 -0.056247 0.158847 0.002109 -0.194132 0.064035 -0.128846 -0.074398 -0.044806 0.109233 0.216886 0.086660 -0.137872 -0.093879 0.036238 -0.065327 0.000392 0.008765 0.007820 0.001570 -0.072853 0.203390 -0.097409 -0.024819 -0.071330 -0.128547 0.017931 -0.235425 -0.153062 0.032566 0.017775 0.112260
15 -0.073334 -0.179241 0.099423 -0.002174 0.141558 -0.028698 0.099851 0.010761 -0.071763 -0.006084 -0.067944 0.129597 -0.033456 -0.142609 -0.110675 -0.123210 0.068436 -0.117086 0.004709 0.059535 0.162141 0.061843 0.099551 0.092724 -0.056702 -0.043380 -0.088858 0.094565 0.025273 0.164966 -0.023839 0.023121 -0.074377 0.116655 -0.117975 -0.173698 0.159364 0.114993 0.017684 -0.016847 -0.167469 -0.028408 0.139684 0.192442 -0.071899 0.080311 0.054873 -0.152614 -0.116429 0.061451 0.019848 0.104490 -0.023783 0.066206 -0.138847 -0.111394 -0.150990 0.083333 -0.061674 0.024418 0.041725 -0.137241 -0.078251 0.146514 0.028176 -0.099197 -0.019456 -0.051572 0.004774 -0.169401 -0.021431 0.077462 -0.000781 -0.023440 0.069095 -0.056503 0.143533 0.045687 -0.065114 -0.007469 -0.151336 -0.140832 0.007205 -0.108859 -0.125329 0.236346 0.019537 -0.036422 -0.059180 -0.034558 0.031166 0.050748 0.090584 0.003873 -0.132893 0.215197 -0.209649 0.060895 0.161190 -0.066200 -0.235714 0.078984 -0.135509 -0.080450 -0.014267 0.134899 0.252607 0.096586 -0.151857 -0.066880 0.056076 -0.144463 -0.008023 -0.031173 0.080506 -0.002605 -0.091162 0.200369 -0.092092 0.030865 -0.082254 -0.191739 -0.032636 -0.193071 -0.081511 0.067734 -0.022750 0.072360
18 -0.069338 -0.236010 0.064543 -0.046759 0.109735 -0.063934 0.086670 0.083146 0.007084 -0.000794 -0.073516 0.155661 -0.021337 -0.145913 -0.038737 -0.173612 0.034049 -0.175212 0.023669 0.005665 0.188531 0.052011 0.095834 0.097756 0.003515 -0.047150 -0.078006 0.090118 0.036237 0.149168 -0.015447 0.002648 -0.096594 0.077723 -0.087439 -0.208090 0.158006 0.131234 0.000537 -0.036300 -0.158498 -0.061479 0.166425 0.230610 -0.132607 0.102470 0.087805 -0.119948 -0.056602 0.096232 -0.047285 0.103373 -0.025275 0.124360 -0.153572 -0.151329 -0.120285 0.095980 -0.050481 -0.020419 0.075995 -0.143017 -0.027006 0.141429 -0.024763 -0.020048 -0.037915 -0.001848 -0.001018 -0.217958 -0.076569 0.069086 0.000762 -0.064054 0.147218 -0.046741 0.153286 0.018957 -0.069785 -0.090891 -0.169270 -0.093651 -0.003836 -0.068356 -0.166036 0.121081 0.120156 -0.049549 -0.010962 -0.009346 0.071583 -0.010793 0.093820 -0.000039 -0.185955 0.139399 -0.144009 -0.070814 0.165318 0.007063 -0.190398 0.066366 -0.124156 -0.077913 -0.049023 0.103178 0.212980 0.085294 -0.142550 -0.105756 0.033446 -0.061458 -0.001237 0.009452 0.002475 0.003835 -0.074980 0.203010 -0.101967 -0.033523 -0.070791 -0.130233 0.025081 -0.239497 -0.162408 0.021860 0.023442 0.114306
10 -0.070480 -0.205850 0.082571 -0.017549 0.130911 -0.041295 0.099999 0.042152 -0.037224 -0.007859 -0.070901 0.146894 -0.034420 -0.146049 -0.085777 -0.141442 0.059609 -0.142469 0.011288 0.040537 0.175364 0.057908 0.100941 0.099610 -0.033109 -0.049689 -0.085597 0.090833 0.028402 0.162498 -0.020775 0.009606 -0.086179 0.105667 -0.113879 -0.195008 0.169768 0.123025 0.004220 -0.030334 -0.168465 -0.047142 0.159544 0.218268 -0.099691 0.093023 0.078748 -0.143450 -0.090822 0.076734 -0.007136 0.109141 -0.023297 0.086748 -0.147290 -0.127920 -0.140306 0.092693 -0.062578 0.007112 0.056495 -0.146820 -0.061972 0.156001 0.004513 -0.069258 -0.029239 -0.033203 -0.002517 -0.202950 -0.043268 0.076111 -0.000872 -0.038130 0.110810 -0.051643 0.148545 0.033905 -0.071265 -0.042807 -0.167923 -0.127016 0.002422 -0.088465 -0.147065 0.197043 0.059844 -0.042035 -0.039535 -0.029027 0.053450 0.026017 0.096247 0.010420 -0.154362 0.189759 -0.188810 0.000889 0.168569 -0.036121 -0.226389 0.074114 -0.136611 -0.082283 -0.033347 0.126873 0.247474 0.098884 -0.155142 -0.080410 0.052286 -0.115114 -0.001433 -0.013560 0.053932 -0.000886 -0.088030 0.209801 -0.098095 -0.000416 -0.082823 -0.171919 -0.010098 -0.220448 -0.114548 0.049286 -0.005778 0.094343
21 -0.075045 -0.186660 0.095804 -0.006843 0.136291 -0.035654 0.101405 0.019421 -0.062584 -0.000972 -0.070328 0.136795 -0.034390 -0.150642 -0.105690 -0.127929 0.068840 -0.127083 0.009255 0.056764 0.165887 0.059156 0.100358 0.096505 -0.045565 -0.049791 -0.087437 0.093622 0.025298 0.169415 -0.016185 0.018414 -0.079753 0.113152 -0.119464 -0.182440 0.164139 0.124400 0.013093 -0.020546 -0.169112 -0.027970 0.143867 0.195840 -0.089134 0.081817 0.066306 -0.147892 -0.106103 0.068193 0.017492 0.110164 -0.023017 0.066451 -0.136159 -0.112792 -0.145798 0.084932 -0.065475 0.020208 0.040744 -0.141714 -0.070887 0.156896 0.023291 -0.095826 -0.023552 -0.047953 -0.000557 -0.187937 -0.025046 0.077041 -0.006232 -0.022514 0.087087 -0.055193 0.139587 0.041018 -0.063675 -0.011976 -0.158758 -0.132714 0.005102 -0.102937 -0.131666 0.223687 0.029533 -0.034114 -0.050750 -0.035836 0.039334 0.044029 0.088211 0.013247 -0.133874 0.203545 -0.205406 0.044611 0.164225 -0.062248 -0.235625 0.078826 -0.137481 -0.080156 -0.018514 0.139169 0.249340 0.093193 -0.151603 -0.071258 0.059760 -0.130382 -0.008307 -0.021576 0.074326 -0.000471 -0.097014 0.199253 -0.088814 0.024551 -0.085888 -0.187527 -0.026472 -0.208163 -0.089402 0.063040 -0.014828 0.075494
23 -0.068726 -0.164060 0.095892 0.009973 0.140481 -0.023985 0.097788 0.007094 -0.077722 -0.005715 -0.068090 0.124913 -0.033962 -0.143929 -0.122120 -0.108776 0.073408 -0.100898 0.004003 0.074190 0.149215 0.056986 0.096760 0.091495 -0.056854 -0.043004 -0.088991 0.087351 0.018265 0.168740 -0.021393 0.026699 -0.073193 0.119837 -0.123660 -0.168540 0.159716 0.109097 0.011415 -0.013200 -0.162383 -0.021135 0.133648 0.181339 -0.064531 0.070371 0.050955 -0.147815 -0.122373 0.055648 0.029632 0.101393 -0.017931 0.047125 -0.126637 -0.101105 -0.149794 0.079387 -0.063913 0.023769 0.033128 -0.138377 -0.078384 0.149121 0.037499 -0.112304 -0.013047 -0.053079 0.004186 -0.157886 -0.012747 0.078942 -0.000984 -0.012286 0.057652 -0.053586 0.136357 0.050187 -0.054290 0.009663 -0.140326 -0.144187 0.011498 -0.108259 -0.114707 0.250714 0.002317 -0.026152 -0.068238 -0.039928 0.025443 0.057176 0.082111 0.008024 -0.119948 0.213281 -0.212993 0.073103 0.155486 -0.074339 -0.240365 0.079130 -0.131608 -0.083432 -0.012575 0.135441 0.245986 0.092678 -0.144155 -0.057030 0.052825 -0.152905 -0.010307 -0.037147 0.092032 -0.007595 -0.097282 0.191256 -0.083485 0.035571 -0.083654 -0.191175 -0.043951 -0.186865 -0.063714 0.066865 -0.031756 0.062607
13 -0.065049 -0.210255 0.071342 -0.038034 0.108963 -0.052049 0.087815 0.059181 -0.010978 -0.002711 -0.072895 0.136911 -0.026854 -0.143317 -0.054912 -0.153713 0.044144 -0.160602 0.020162 0.014169 0.175179 0.053915 0.083624 0.095060 -0.015489 -0.049317 -0.077032 0.094540 0.031315 0.150081 -0.019423 0.006278 -0.089481 0.080049 -0.095925 -0.199243 0.159528 0.130867 0.005010 -0.032719 -0.151740 -0.058320 0.156929 0.219815 -0.115230 0.094502 0.081845 -0.122712 -0.074205 0.091042 -0.031544 0.105945 -0.024514 0.107475 -0.148581 -0.141868 -0.129391 0.092588 -0.049519 -0.010452 0.063602 -0.138876 -0.038665 0.141009 -0.012057 -0.043731 -0.033517 -0.013834 0.000376 -0.215108 -0.065364 0.071097 -0.003868 -0.052867 0.125344 -0.056825 0.143538 0.021422 -0.073178 -0.074127 -0.161329 -0.109069 -0.003941 -0.074086 -0.156506 0.147566 0.096106 -0.043395 -0.023707 -0.014401 0.064929 0.001189 0.085628 0.002005 -0.164921 0.150609 -0.158259 -0.044154 0.158083 -0.011285 -0.195059 0.067828 -0.127158 -0.078707 -0.040004 0.107698 0.224488 0.084731 -0.143130 -0.096375 0.042742 -0.080167 -0.000754 0.005405 0.018226 -0.000395 -0.080397 0.201126 -0.093649 -0.020478 -0.072983 -0.137170 0.011860 -0.222792 -0.143686 0.036656 0.015433 0.107200
16 -0.072678 -0.193084 0.091175 -0.010842 0.130965 -0.040246 0.100107 0.031159 -0.048883 -0.003911 -0.073134 0.137557 -0.033463 -0.140769 -0.090208 -0.136266 0.059792 -0.138580 0.008109 0.042164 0.165536 0.058203 0.101160 0.092490 -0.035088 -0.048706 -0.084511 0.092150 0.024303 0.160081 -0.021070 0.018788 -0.083730 0.100078 -0.109996 -0.182979 0.166765 0.120382 0.006990 -0.027829 -0.168595 -0.034259 0.153367 0.204295 -0.091117 0.081995 0.072775 -0.140506 -0.101981 0.079161 0.006007 0.109320 -0.024635 0.081293 -0.138720 -0.122350 -0.141921 0.090156 -0.058264 0.007802 0.051049 -0.144469 -0.064750 0.146684 0.012730 -0.082612 -0.025406 -0.033324 -0.000930 -0.193537 -0.033928 0.074303 -0.004737 -0.032680 0.097404 -0.057612 0.147694 0.037004 -0.068689 -0.027809 -0.155145 -0.130465 0.005680 -0.096029 -0.135586 0.211185 0.047784 -0.032806 -0.045277 -0.028056 0.037606 0.035170 0.086894 0.009698 -0.143776 0.197443 -0.189738 0.020484 0.163085 -0.052625 -0.225427 0.081244 -0.131235 -0.084788 -0.029855 0.128810 0.244200 0.094080 -0.146684 -0.074140 0.051113 -0.117441 -0.009518 -0.014184 0.063976 -0.000000 -0.089988 0.206091 -0.093156 0.009558 -0.082866 -0.172951 -0.019562 -0.213591 -0.104836 0.058776 -0.010029 0.089972
17 -0.081528 -0.271915 0.060034 -0.050938 0.093459 -0.068157 0.106443 0.109786 0.057159 0.001251 -0.071224 0.166878 -0.031681 -0.133490 -0.012258 -0.174026 0.032800 -0.228142 0.018054 -0.026643 0.191369 0.034163 0.091243 0.097975 0.045350 -0.074713 -0.083724 0.075165 0.026358 0.140875 -0.000655 -0.007759 -0.077043 0.031089 -0.075377 -0.211577 0.158301 0.150443 -0.016295 -0.049278 -0.159301 -0.069157 0.178228 0.232915 -0.167682 0.101552 0.122983 -0.090561 -0.022343 0.125370 -0.063436 0.120003 -0.035057 0.122444 -0.132797 -0.169365 -0.115926 0.098474 -0.029820 -0.037430 0.088785 -0.139088 0.011917 0.144170 -0.054092 0.009918 -0.048925 0.023272 -0.003831 -0.257438 -0.090701 0.066455 -0.028858 -0.070272 0.185185 -0.044733 0.139130 0.004608 -0.089101 -0.132500 -0.179978 -0.046421 0.008749 -0.023564 -0.188065 0.059378 0.156728 -0.044346 0.014311 0.003987 0.083946 -0.032259 0.099190 0.034667 -0.184052 0.114881 -0.096004 -0.115216 0.177079 0.034499 -0.160166 0.076297 -0.139994 -0.077939 -0.070419 0.099195 0.208005 0.075924 -0.132256 -0.109443 0.040979 -0.017560 -0.005363 0.031654 -0.016844 0.013138 -0.067478 0.207854 -0.096445 -0.058042 -0.059983 -0.099725 0.064170 -0.253382 -0.221061 -0.001278 0.047824 0.145184
19 -0.064963 -0.175258 0.095831 -0.003357 0.134339 -0.031770 0.093882 0.014121 -0.065665 -0.005010 -0.069977 0.129553 -0.032825 -0.140275 -0.107887 -0.118647 0.064228 -0.115314 0.010546 0.062841 0.154736 0.055427 0.096630 0.091185 -0.050168 -0.039061 -0.085247 0.091551 0.024419 0.161150 -0.020490 0.022032 -0.078466 0.112087 -0.117153 -0.174554 0.155629 0.115804 0.015350 -0.017130 -0.160880 -0.031277 0.139014 0.189063 -0.073226 0.076873 0.060326 -0.150652 -0.111948 0.063330 0.014952 0.100849 -0.025405 0.062931 -0.130808 -0.104997 -0.145417 0.086926 -0.058507 0.018929 0.038448 -0.139716 -0.072494 0.150015 0.023783 -0.099649 -0.016253 -0.047641 -0.001114 -0.173437 -0.023864 0.077926 -0.001349 -0.020701 0.071991 -0.057396 0.142620 0.046268 -0.062617 -0.010853 -0.149853 -0.138386 0.005557 -0.106242 -0.123254 0.229829 0.026478 -0.030547 -0.058981 -0.036544 0.031543 0.048838 0.089238 0.007197 -0.132448 0.207522 -0.206325 0.049773 0.158964 -0.066368 -0.233269 0.079037 -0.134336 -0.083389 -0.018771 0.134535 0.244352 0.095382 -0.148841 -0.066526 0.051400 -0.136942 -0.004840 -0.028234 0.080369 -0.002484 -0.087667 0.198060 -0.091753 0.027301 -0.085094 -0.185070 -0.035013 -0.198632 -0.085036 0.065217 -0.024904 0.069761
27 -0.066622 -0.164688 0.102072 0.005134 0.150789 -0.025144 0.100317 -0.003670 -0.103860 -0.006088 -0.070014 0.112600 -0.032316 -0.136731 -0.132216 -0.111288 0.083875 -0.094629 0.006630 0.076677 0.153052 0.068199 0.099998 0.093852 -0.074932 -0.042124 -0.092688 0.101698 0.021392 0.173838 -0.024291 0.021828 -0.076204 0.126480 -0.123981 -0.165634 0.156920 0.106940 0.018629 -0.016704 -0.165159 -0.021721 0.124323 0.179316 -0.053588 0.074256 0.045907 -0.157872 -0.132010 0.050584 0.040874 0.102280 -0.024169 0.055422 -0.135146 -0.099192 -0.146149 0.081577 -0.065499 0.036190 0.021641 -0.127517 -0.094159 0.145840 0.039817 -0.121066 -0.018772 -0.059111 0.000645 -0.151555 -0.016274 0.085221 0.001102 -0.016111 0.042402 -0.063790 0.135772 0.049373 -0.057468 0.022091 -0.146604 -0.160718 0.007607 -0.114445 -0.108656 0.269944 -0.002734 -0.030834 -0.076082 -0.044842 0.012894 0.059031 0.084979 -0.001239 -0.117448 0.225987 -0.228365 0.088825 0.156072 -0.093373 -0.253344 0.079765 -0.125521 -0.084013 -0.000295 0.148305 0.261133 0.094153 -0.154348 -0.048054 0.058612 -0.166321 -0.005374 -0.037670 0.100102 -0.011543 -0.094237 0.190507 -0.084082 0.041745 -0.089903 -0.199297 -0.054432 -0.185702 -0.051864 0.085611 -0.037621 0.055647
22 -0.066268 -0.240938 0.060851 -0.050387 0.103765 -0.067378 0.087423 0.083486 0.006852 -0.006706 -0.074420 0.152980 -0.021044 -0.145671 -0.031711 -0.174465 0.030802 -0.181789 0.031078 0.002443 0.189452 0.052442 0.092937 0.097642 -0.000890 -0.047701 -0.081524 0.086860 0.036951 0.150188 -0.015411 -0.005236 -0.101448 0.073073 -0.091746 -0.216007 0.162507 0.133820 -0.003562 -0.045144 -0.154215 -0.074928 0.166868 0.241286 -0.133977 0.108891 0.089042 -0.116374 -0.054023 0.098182 -0.055311 0.105445 -0.031889 0.124662 -0.154382 -0.159165 -0.117610 0.104472 -0.047247 -0.024503 0.079174 -0.140902 -0.020849 0.149111 -0.033458 -0.014111 -0.044611 0.005885 0.000341 -0.224091 -0.083915 0.074335 -0.003318 -0.067840 0.153530 -0.047850 0.147286 0.017119 -0.071003 -0.098415 -0.173012 -0.096161 -0.003878 -0.066395 -0.168149 0.112466 0.128847 -0.054382 -0.003368 -0.011357 0.078359 -0.016642 0.093543 -0.001811 -0.186879 0.134375 -0.140718 -0.081851 0.167514 0.010231 -0.188895 0.063601 -0.124176 -0.075635 -0.048789 0.105262 0.216253 0.089835 -0.143128 -0.105110 0.036102 -0.055275 0.005471 0.017118 -0.006197 0.004870 -0.076845 0.206684 -0.106418 -0.039457 -0.068875 -0.126230 0.030302 -0.245975 -0.169213 0.023504 0.030862 0.121266
12 -0.078364 -0.252341 0.066635 -0.051907 0.105816 -0.064491 0.093181 0.084867 0.013309 -0.002560 -0.071695 0.162131 -0.029354 -0.145460 -0.035421 -0.174402 0.034414 -0.192578 0.027577 -0.007175 0.192720 0.054904 0.094665 0.100193 0.005865 -0.060592 -0.081328 0.090975 0.032998 0.150931 -0.011609 -0.000559 -0.099822 0.069203 -0.089475 -0.212591 0.163454 0.143304 -0.003883 -0.041369 -0.162507 -0.069008 0.178814 0.238762 -0.144477 0.107674 0.102021 -0.118317 -0.056333 0.105370 -0.052623 0.115152 -0.031573 0.122425 -0.157371 -0.166675 -0.122949 0.101325 -0.047277 -0.020629 0.080360 -0.141756 -0.020978 0.149989 -0.037922 -0.015720 -0.038578 0.005709 -0.001519 -0.235642 -0.076491 0.074489 -0.006851 -0.063339 0.157122 -0.052800 0.155499 0.018728 -0.078189 -0.099275 -0.176160 -0.087525 -0.006383 -0.060372 -0.176420 0.114924 0.127898 -0.049249 -0.008280 -0.012387 0.077072 -0.011197 0.095084 0.008094 -0.186677 0.135590 -0.136165 -0.088029 0.173983 0.013804 -0.194508 0.066367 -0.132802 -0.082371 -0.054666 0.103008 0.223994 0.089441 -0.141244 -0.112358 0.034460 -0.054295 -0.000308 0.017729 -0.000976 0.010229 -0.076699 0.216123 -0.108036 -0.042241 -0.073175 -0.128806 0.035218 -0.248065 -0.183724 0.021689 0.027951 0.127227
